0.01	4	63.24
J48 pruned tree
------------------

cstore = locally: 1 (1508.0/703.0)
cstore = remserv: 0 (1508.0/630.0)
cstore = share: 0 (1508.0/330.0)

Number of Leaves  : 	3

Size of the tree : 	4

0.02	4	63.06
J48 pruned tree
------------------

cstore = locally: 1 (1508.0/703.0)
cstore = remserv: 0 (1508.0/630.0)
cstore = share: 0 (1508.0/330.0)

Number of Leaves  : 	3

Size of the tree : 	4

0.03	4	63.15
J48 pruned tree
------------------

cstore = locally: 1 (1508.0/703.0)
cstore = remserv: 0 (1508.0/630.0)
cstore = share: 0 (1508.0/330.0)

Number of Leaves  : 	3

Size of the tree : 	4

0.04	4	63.17
J48 pruned tree
------------------

cstore = locally: 1 (1508.0/703.0)
cstore = remserv: 0 (1508.0/630.0)
cstore = share: 0 (1508.0/330.0)

Number of Leaves  : 	3

Size of the tree : 	4

0.05	4	63.24
J48 pruned tree
------------------

cstore = locally: 1 (1508.0/703.0)
cstore = remserv: 0 (1508.0/630.0)
cstore = share: 0 (1508.0/330.0)

Number of Leaves  : 	3

Size of the tree : 	4

0.06	4	63.24
J48 pruned tree
------------------

cstore = locally: 1 (1508.0/703.0)
cstore = remserv: 0 (1508.0/630.0)
cstore = share: 0 (1508.0/330.0)

Number of Leaves  : 	3

Size of the tree : 	4

0.07	4	62.86
J48 pruned tree
------------------

cstore = locally: 1 (1508.0/703.0)
cstore = remserv: 0 (1508.0/630.0)
cstore = share: 0 (1508.0/330.0)

Number of Leaves  : 	3

Size of the tree : 	4

0.08	20	63.24
J48 pruned tree
------------------

cstore = locally
|   whof = hvac: 1 (187.0/92.0)
|   whof = refr
|   |   purposef = opauto: 1 (48.0/18.0)
|   |   purposef = lochouse: 0 (41.0/12.0)
|   |   purposef = preshouse: 1 (45.0/21.0)
|   |   purposef = alert: 0 (49.0/24.0)
|   whof = assis: 1 (194.0/71.0)
|   whof = light: 1 (188.0/64.0)
|   whof = wash: 0 (187.0/83.0)
|   whof = alarm
|   |   purposef = opauto: 1 (49.0/21.0)
|   |   purposef = lochouse: 0 (47.0/11.0)
|   |   purposef = preshouse: 1 (51.0/21.0)
|   |   purposef = alert: 1 (43.0/18.0)
|   whof = secu: 1 (189.0/82.0)
|   whof = tv: 0 (190.0/89.0)
cstore = remserv: 0 (1508.0/630.0)
cstore = share: 0 (1508.0/330.0)

Number of Leaves  : 	16

Size of the tree : 	20

0.09	20	62.95
J48 pruned tree
------------------

cstore = locally
|   whof = hvac: 1 (187.0/92.0)
|   whof = refr
|   |   purposef = opauto: 1 (48.0/18.0)
|   |   purposef = lochouse: 0 (41.0/12.0)
|   |   purposef = preshouse: 1 (45.0/21.0)
|   |   purposef = alert: 0 (49.0/24.0)
|   whof = assis: 1 (194.0/71.0)
|   whof = light: 1 (188.0/64.0)
|   whof = wash: 0 (187.0/83.0)
|   whof = alarm
|   |   purposef = opauto: 1 (49.0/21.0)
|   |   purposef = lochouse: 0 (47.0/11.0)
|   |   purposef = preshouse: 1 (51.0/21.0)
|   |   purposef = alert: 1 (43.0/18.0)
|   whof = secu: 1 (189.0/82.0)
|   whof = tv: 0 (190.0/89.0)
cstore = remserv: 0 (1508.0/630.0)
cstore = share: 0 (1508.0/330.0)

Number of Leaves  : 	16

Size of the tree : 	20

0.10	20	63.42
J48 pruned tree
------------------

cstore = locally
|   whof = hvac: 1 (187.0/92.0)
|   whof = refr
|   |   purposef = opauto: 1 (48.0/18.0)
|   |   purposef = lochouse: 0 (41.0/12.0)
|   |   purposef = preshouse: 1 (45.0/21.0)
|   |   purposef = alert: 0 (49.0/24.0)
|   whof = assis: 1 (194.0/71.0)
|   whof = light: 1 (188.0/64.0)
|   whof = wash: 0 (187.0/83.0)
|   whof = alarm
|   |   purposef = opauto: 1 (49.0/21.0)
|   |   purposef = lochouse: 0 (47.0/11.0)
|   |   purposef = preshouse: 1 (51.0/21.0)
|   |   purposef = alert: 1 (43.0/18.0)
|   whof = secu: 1 (189.0/82.0)
|   whof = tv: 0 (190.0/89.0)
cstore = remserv: 0 (1508.0/630.0)
cstore = share: 0 (1508.0/330.0)

Number of Leaves  : 	16

Size of the tree : 	20

0.11	20	63.79
J48 pruned tree
------------------

cstore = locally
|   whof = hvac: 1 (187.0/92.0)
|   whof = refr
|   |   purposef = opauto: 1 (48.0/18.0)
|   |   purposef = lochouse: 0 (41.0/12.0)
|   |   purposef = preshouse: 1 (45.0/21.0)
|   |   purposef = alert: 0 (49.0/24.0)
|   whof = assis: 1 (194.0/71.0)
|   whof = light: 1 (188.0/64.0)
|   whof = wash: 0 (187.0/83.0)
|   whof = alarm
|   |   purposef = opauto: 1 (49.0/21.0)
|   |   purposef = lochouse: 0 (47.0/11.0)
|   |   purposef = preshouse: 1 (51.0/21.0)
|   |   purposef = alert: 1 (43.0/18.0)
|   whof = secu: 1 (189.0/82.0)
|   whof = tv: 0 (190.0/89.0)
cstore = remserv: 0 (1508.0/630.0)
cstore = share: 0 (1508.0/330.0)

Number of Leaves  : 	16

Size of the tree : 	20

0.12	20	63.13
J48 pruned tree
------------------

cstore = locally
|   whof = hvac: 1 (187.0/92.0)
|   whof = refr
|   |   purposef = opauto: 1 (48.0/18.0)
|   |   purposef = lochouse: 0 (41.0/12.0)
|   |   purposef = preshouse: 1 (45.0/21.0)
|   |   purposef = alert: 0 (49.0/24.0)
|   whof = assis: 1 (194.0/71.0)
|   whof = light: 1 (188.0/64.0)
|   whof = wash: 0 (187.0/83.0)
|   whof = alarm
|   |   purposef = opauto: 1 (49.0/21.0)
|   |   purposef = lochouse: 0 (47.0/11.0)
|   |   purposef = preshouse: 1 (51.0/21.0)
|   |   purposef = alert: 1 (43.0/18.0)
|   whof = secu: 1 (189.0/82.0)
|   whof = tv: 0 (190.0/89.0)
cstore = remserv: 0 (1508.0/630.0)
cstore = share: 0 (1508.0/330.0)

Number of Leaves  : 	16

Size of the tree : 	20

0.13	20	63.73
J48 pruned tree
------------------

cstore = locally
|   whof = hvac: 1 (187.0/92.0)
|   whof = refr
|   |   purposef = opauto: 1 (48.0/18.0)
|   |   purposef = lochouse: 0 (41.0/12.0)
|   |   purposef = preshouse: 1 (45.0/21.0)
|   |   purposef = alert: 0 (49.0/24.0)
|   whof = assis: 1 (194.0/71.0)
|   whof = light: 1 (188.0/64.0)
|   whof = wash: 0 (187.0/83.0)
|   whof = alarm
|   |   purposef = opauto: 1 (49.0/21.0)
|   |   purposef = lochouse: 0 (47.0/11.0)
|   |   purposef = preshouse: 1 (51.0/21.0)
|   |   purposef = alert: 1 (43.0/18.0)
|   whof = secu: 1 (189.0/82.0)
|   whof = tv: 0 (190.0/89.0)
cstore = remserv: 0 (1508.0/630.0)
cstore = share: 0 (1508.0/330.0)

Number of Leaves  : 	16

Size of the tree : 	20

0.14	20	62.98
J48 pruned tree
------------------

cstore = locally
|   whof = hvac: 1 (187.0/92.0)
|   whof = refr
|   |   purposef = opauto: 1 (48.0/18.0)
|   |   purposef = lochouse: 0 (41.0/12.0)
|   |   purposef = preshouse: 1 (45.0/21.0)
|   |   purposef = alert: 0 (49.0/24.0)
|   whof = assis: 1 (194.0/71.0)
|   whof = light: 1 (188.0/64.0)
|   whof = wash: 0 (187.0/83.0)
|   whof = alarm
|   |   purposef = opauto: 1 (49.0/21.0)
|   |   purposef = lochouse: 0 (47.0/11.0)
|   |   purposef = preshouse: 1 (51.0/21.0)
|   |   purposef = alert: 1 (43.0/18.0)
|   whof = secu: 1 (189.0/82.0)
|   whof = tv: 0 (190.0/89.0)
cstore = remserv: 0 (1508.0/630.0)
cstore = share: 0 (1508.0/330.0)

Number of Leaves  : 	16

Size of the tree : 	20

0.15	20	63.31
J48 pruned tree
------------------

cstore = locally
|   whof = hvac: 1 (187.0/92.0)
|   whof = refr
|   |   purposef = opauto: 1 (48.0/18.0)
|   |   purposef = lochouse: 0 (41.0/12.0)
|   |   purposef = preshouse: 1 (45.0/21.0)
|   |   purposef = alert: 0 (49.0/24.0)
|   whof = assis: 1 (194.0/71.0)
|   whof = light: 1 (188.0/64.0)
|   whof = wash: 0 (187.0/83.0)
|   whof = alarm
|   |   purposef = opauto: 1 (49.0/21.0)
|   |   purposef = lochouse: 0 (47.0/11.0)
|   |   purposef = preshouse: 1 (51.0/21.0)
|   |   purposef = alert: 1 (43.0/18.0)
|   whof = secu: 1 (189.0/82.0)
|   whof = tv: 0 (190.0/89.0)
cstore = remserv: 0 (1508.0/630.0)
cstore = share: 0 (1508.0/330.0)

Number of Leaves  : 	16

Size of the tree : 	20

0.16	20	63.48
J48 pruned tree
------------------

cstore = locally
|   whof = hvac: 1 (187.0/92.0)
|   whof = refr
|   |   purposef = opauto: 1 (48.0/18.0)
|   |   purposef = lochouse: 0 (41.0/12.0)
|   |   purposef = preshouse: 1 (45.0/21.0)
|   |   purposef = alert: 0 (49.0/24.0)
|   whof = assis: 1 (194.0/71.0)
|   whof = light: 1 (188.0/64.0)
|   whof = wash: 0 (187.0/83.0)
|   whof = alarm
|   |   purposef = opauto: 1 (49.0/21.0)
|   |   purposef = lochouse: 0 (47.0/11.0)
|   |   purposef = preshouse: 1 (51.0/21.0)
|   |   purposef = alert: 1 (43.0/18.0)
|   whof = secu: 1 (189.0/82.0)
|   whof = tv: 0 (190.0/89.0)
cstore = remserv: 0 (1508.0/630.0)
cstore = share: 0 (1508.0/330.0)

Number of Leaves  : 	16

Size of the tree : 	20

0.17	40	63.37
J48 pruned tree
------------------

cstore = locally
|   whof = hvac
|   |   whatf = coassis: 1 (16.0/7.0)
|   |   whatf = colight: 1 (15.0/5.0)
|   |   whatf = locsens: 1 (17.0/5.0)
|   |   whatf = coalarm: 1 (16.0/7.0)
|   |   whatf = cotv: 0 (17.0/7.0)
|   |   whatf = cosecu: 0 (17.0/7.0)
|   |   whatf = corefri: 0 (15.0/4.0)
|   |   whatf = micro
|   |   |   caction = reco: 0 (4.0)
|   |   |   caction = insight: 1 (3.0/1.0)
|   |   |   caction = opti: 1 (4.0)
|   |   |   caction = nothing: 0 (4.0/2.0)
|   |   whatf = cohvac: 0 (16.0/6.0)
|   |   whatf = watch: 1 (14.0/4.0)
|   |   whatf = cowash: 0 (16.0/7.0)
|   |   whatf = cam
|   |   |   purposef = opauto: 0 (3.0)
|   |   |   purposef = lochouse: 0 (3.0/1.0)
|   |   |   purposef = preshouse: 1 (4.0)
|   |   |   purposef = alert: 0 (3.0/1.0)
|   whof = refr
|   |   purposef = opauto: 1 (48.0/18.0)
|   |   purposef = lochouse: 0 (41.0/12.0)
|   |   purposef = preshouse: 1 (45.0/21.0)
|   |   purposef = alert: 0 (49.0/24.0)
|   whof = assis: 1 (194.0/71.0)
|   whof = light: 1 (188.0/64.0)
|   whof = wash: 0 (187.0/83.0)
|   whof = alarm
|   |   purposef = opauto: 1 (49.0/21.0)
|   |   purposef = lochouse: 0 (47.0/11.0)
|   |   purposef = preshouse: 1 (51.0/21.0)
|   |   purposef = alert: 1 (43.0/18.0)
|   whof = secu: 1 (189.0/82.0)
|   whof = tv: 0 (190.0/89.0)
cstore = remserv: 0 (1508.0/630.0)
cstore = share: 0 (1508.0/330.0)

Number of Leaves  : 	33

Size of the tree : 	40

0.18	40	62.67
J48 pruned tree
------------------

cstore = locally
|   whof = hvac
|   |   whatf = coassis: 1 (16.0/7.0)
|   |   whatf = colight: 1 (15.0/5.0)
|   |   whatf = locsens: 1 (17.0/5.0)
|   |   whatf = coalarm: 1 (16.0/7.0)
|   |   whatf = cotv: 0 (17.0/7.0)
|   |   whatf = cosecu: 0 (17.0/7.0)
|   |   whatf = corefri: 0 (15.0/4.0)
|   |   whatf = micro
|   |   |   caction = reco: 0 (4.0)
|   |   |   caction = insight: 1 (3.0/1.0)
|   |   |   caction = opti: 1 (4.0)
|   |   |   caction = nothing: 0 (4.0/2.0)
|   |   whatf = cohvac: 0 (16.0/6.0)
|   |   whatf = watch: 1 (14.0/4.0)
|   |   whatf = cowash: 0 (16.0/7.0)
|   |   whatf = cam
|   |   |   purposef = opauto: 0 (3.0)
|   |   |   purposef = lochouse: 0 (3.0/1.0)
|   |   |   purposef = preshouse: 1 (4.0)
|   |   |   purposef = alert: 0 (3.0/1.0)
|   whof = refr
|   |   purposef = opauto: 1 (48.0/18.0)
|   |   purposef = lochouse: 0 (41.0/12.0)
|   |   purposef = preshouse: 1 (45.0/21.0)
|   |   purposef = alert: 0 (49.0/24.0)
|   whof = assis: 1 (194.0/71.0)
|   whof = light: 1 (188.0/64.0)
|   whof = wash: 0 (187.0/83.0)
|   whof = alarm
|   |   purposef = opauto: 1 (49.0/21.0)
|   |   purposef = lochouse: 0 (47.0/11.0)
|   |   purposef = preshouse: 1 (51.0/21.0)
|   |   purposef = alert: 1 (43.0/18.0)
|   whof = secu: 1 (189.0/82.0)
|   whof = tv: 0 (190.0/89.0)
cstore = remserv: 0 (1508.0/630.0)
cstore = share: 0 (1508.0/330.0)

Number of Leaves  : 	33

Size of the tree : 	40

0.19	40	63.42
J48 pruned tree
------------------

cstore = locally
|   whof = hvac
|   |   whatf = coassis: 1 (16.0/7.0)
|   |   whatf = colight: 1 (15.0/5.0)
|   |   whatf = locsens: 1 (17.0/5.0)
|   |   whatf = coalarm: 1 (16.0/7.0)
|   |   whatf = cotv: 0 (17.0/7.0)
|   |   whatf = cosecu: 0 (17.0/7.0)
|   |   whatf = corefri: 0 (15.0/4.0)
|   |   whatf = micro
|   |   |   caction = reco: 0 (4.0)
|   |   |   caction = insight: 1 (3.0/1.0)
|   |   |   caction = opti: 1 (4.0)
|   |   |   caction = nothing: 0 (4.0/2.0)
|   |   whatf = cohvac: 0 (16.0/6.0)
|   |   whatf = watch: 1 (14.0/4.0)
|   |   whatf = cowash: 0 (16.0/7.0)
|   |   whatf = cam
|   |   |   purposef = opauto: 0 (3.0)
|   |   |   purposef = lochouse: 0 (3.0/1.0)
|   |   |   purposef = preshouse: 1 (4.0)
|   |   |   purposef = alert: 0 (3.0/1.0)
|   whof = refr
|   |   purposef = opauto: 1 (48.0/18.0)
|   |   purposef = lochouse: 0 (41.0/12.0)
|   |   purposef = preshouse: 1 (45.0/21.0)
|   |   purposef = alert: 0 (49.0/24.0)
|   whof = assis: 1 (194.0/71.0)
|   whof = light: 1 (188.0/64.0)
|   whof = wash: 0 (187.0/83.0)
|   whof = alarm
|   |   purposef = opauto: 1 (49.0/21.0)
|   |   purposef = lochouse: 0 (47.0/11.0)
|   |   purposef = preshouse: 1 (51.0/21.0)
|   |   purposef = alert: 1 (43.0/18.0)
|   whof = secu: 1 (189.0/82.0)
|   whof = tv: 0 (190.0/89.0)
cstore = remserv: 0 (1508.0/630.0)
cstore = share: 0 (1508.0/330.0)

Number of Leaves  : 	33

Size of the tree : 	40

0.20	40	63.86
J48 pruned tree
------------------

cstore = locally
|   whof = hvac
|   |   whatf = coassis: 1 (16.0/7.0)
|   |   whatf = colight: 1 (15.0/5.0)
|   |   whatf = locsens: 1 (17.0/5.0)
|   |   whatf = coalarm: 1 (16.0/7.0)
|   |   whatf = cotv: 0 (17.0/7.0)
|   |   whatf = cosecu: 0 (17.0/7.0)
|   |   whatf = corefri: 0 (15.0/4.0)
|   |   whatf = micro
|   |   |   caction = reco: 0 (4.0)
|   |   |   caction = insight: 1 (3.0/1.0)
|   |   |   caction = opti: 1 (4.0)
|   |   |   caction = nothing: 0 (4.0/2.0)
|   |   whatf = cohvac: 0 (16.0/6.0)
|   |   whatf = watch: 1 (14.0/4.0)
|   |   whatf = cowash: 0 (16.0/7.0)
|   |   whatf = cam
|   |   |   purposef = opauto: 0 (3.0)
|   |   |   purposef = lochouse: 0 (3.0/1.0)
|   |   |   purposef = preshouse: 1 (4.0)
|   |   |   purposef = alert: 0 (3.0/1.0)
|   whof = refr
|   |   purposef = opauto: 1 (48.0/18.0)
|   |   purposef = lochouse: 0 (41.0/12.0)
|   |   purposef = preshouse: 1 (45.0/21.0)
|   |   purposef = alert: 0 (49.0/24.0)
|   whof = assis: 1 (194.0/71.0)
|   whof = light: 1 (188.0/64.0)
|   whof = wash: 0 (187.0/83.0)
|   whof = alarm
|   |   purposef = opauto: 1 (49.0/21.0)
|   |   purposef = lochouse: 0 (47.0/11.0)
|   |   purposef = preshouse: 1 (51.0/21.0)
|   |   purposef = alert: 1 (43.0/18.0)
|   whof = secu: 1 (189.0/82.0)
|   whof = tv: 0 (190.0/89.0)
cstore = remserv: 0 (1508.0/630.0)
cstore = share: 0 (1508.0/330.0)

Number of Leaves  : 	33

Size of the tree : 	40

0.21	40	63.44
J48 pruned tree
------------------

cstore = locally
|   whof = hvac
|   |   whatf = coassis: 1 (16.0/7.0)
|   |   whatf = colight: 1 (15.0/5.0)
|   |   whatf = locsens: 1 (17.0/5.0)
|   |   whatf = coalarm: 1 (16.0/7.0)
|   |   whatf = cotv: 0 (17.0/7.0)
|   |   whatf = cosecu: 0 (17.0/7.0)
|   |   whatf = corefri: 0 (15.0/4.0)
|   |   whatf = micro
|   |   |   caction = reco: 0 (4.0)
|   |   |   caction = insight: 1 (3.0/1.0)
|   |   |   caction = opti: 1 (4.0)
|   |   |   caction = nothing: 0 (4.0/2.0)
|   |   whatf = cohvac: 0 (16.0/6.0)
|   |   whatf = watch: 1 (14.0/4.0)
|   |   whatf = cowash: 0 (16.0/7.0)
|   |   whatf = cam
|   |   |   purposef = opauto: 0 (3.0)
|   |   |   purposef = lochouse: 0 (3.0/1.0)
|   |   |   purposef = preshouse: 1 (4.0)
|   |   |   purposef = alert: 0 (3.0/1.0)
|   whof = refr
|   |   purposef = opauto: 1 (48.0/18.0)
|   |   purposef = lochouse: 0 (41.0/12.0)
|   |   purposef = preshouse: 1 (45.0/21.0)
|   |   purposef = alert: 0 (49.0/24.0)
|   whof = assis: 1 (194.0/71.0)
|   whof = light: 1 (188.0/64.0)
|   whof = wash: 0 (187.0/83.0)
|   whof = alarm
|   |   purposef = opauto: 1 (49.0/21.0)
|   |   purposef = lochouse: 0 (47.0/11.0)
|   |   purposef = preshouse: 1 (51.0/21.0)
|   |   purposef = alert: 1 (43.0/18.0)
|   whof = secu: 1 (189.0/82.0)
|   whof = tv: 0 (190.0/89.0)
cstore = remserv: 0 (1508.0/630.0)
cstore = share: 0 (1508.0/330.0)

Number of Leaves  : 	33

Size of the tree : 	40

0.22	40	64.01
J48 pruned tree
------------------

cstore = locally
|   whof = hvac
|   |   whatf = coassis: 1 (16.0/7.0)
|   |   whatf = colight: 1 (15.0/5.0)
|   |   whatf = locsens: 1 (17.0/5.0)
|   |   whatf = coalarm: 1 (16.0/7.0)
|   |   whatf = cotv: 0 (17.0/7.0)
|   |   whatf = cosecu: 0 (17.0/7.0)
|   |   whatf = corefri: 0 (15.0/4.0)
|   |   whatf = micro
|   |   |   caction = reco: 0 (4.0)
|   |   |   caction = insight: 1 (3.0/1.0)
|   |   |   caction = opti: 1 (4.0)
|   |   |   caction = nothing: 0 (4.0/2.0)
|   |   whatf = cohvac: 0 (16.0/6.0)
|   |   whatf = watch: 1 (14.0/4.0)
|   |   whatf = cowash: 0 (16.0/7.0)
|   |   whatf = cam
|   |   |   purposef = opauto: 0 (3.0)
|   |   |   purposef = lochouse: 0 (3.0/1.0)
|   |   |   purposef = preshouse: 1 (4.0)
|   |   |   purposef = alert: 0 (3.0/1.0)
|   whof = refr
|   |   purposef = opauto: 1 (48.0/18.0)
|   |   purposef = lochouse: 0 (41.0/12.0)
|   |   purposef = preshouse: 1 (45.0/21.0)
|   |   purposef = alert: 0 (49.0/24.0)
|   whof = assis: 1 (194.0/71.0)
|   whof = light: 1 (188.0/64.0)
|   whof = wash: 0 (187.0/83.0)
|   whof = alarm
|   |   purposef = opauto: 1 (49.0/21.0)
|   |   purposef = lochouse: 0 (47.0/11.0)
|   |   purposef = preshouse: 1 (51.0/21.0)
|   |   purposef = alert: 1 (43.0/18.0)
|   whof = secu: 1 (189.0/82.0)
|   whof = tv: 0 (190.0/89.0)
cstore = remserv: 0 (1508.0/630.0)
cstore = share: 0 (1508.0/330.0)

Number of Leaves  : 	33

Size of the tree : 	40

0.23	44	63.42
J48 pruned tree
------------------

cstore = locally
|   whof = hvac
|   |   caction = reco: 0 (49.0/18.0)
|   |   caction = insight: 1 (45.0/21.0)
|   |   caction = opti: 1 (43.0/16.0)
|   |   caction = nothing: 1 (50.0/24.0)
|   whof = refr
|   |   purposef = opauto: 1 (48.0/18.0)
|   |   purposef = lochouse: 0 (41.0/12.0)
|   |   purposef = preshouse: 1 (45.0/21.0)
|   |   purposef = alert: 0 (49.0/24.0)
|   whof = assis: 1 (194.0/71.0)
|   whof = light: 1 (188.0/64.0)
|   whof = wash: 0 (187.0/83.0)
|   whof = alarm
|   |   purposef = opauto: 1 (49.0/21.0)
|   |   purposef = lochouse: 0 (47.0/11.0)
|   |   purposef = preshouse: 1 (51.0/21.0)
|   |   purposef = alert: 1 (43.0/18.0)
|   whof = secu: 1 (189.0/82.0)
|   whof = tv
|   |   whatf = coassis: 0 (15.0/6.0)
|   |   whatf = colight: 0 (15.0/5.0)
|   |   whatf = locsens: 0 (15.0/4.0)
|   |   whatf = coalarm: 1 (15.0/4.0)
|   |   whatf = cotv: 0 (17.0/8.0)
|   |   whatf = cosecu
|   |   |   purposef = opauto: 0 (4.0/2.0)
|   |   |   purposef = lochouse: 0 (4.0/1.0)
|   |   |   purposef = preshouse: 0 (4.0/1.0)
|   |   |   purposef = alert: 1 (4.0)
|   |   whatf = corefri: 0 (17.0/6.0)
|   |   whatf = micro: 1 (16.0/7.0)
|   |   whatf = cohvac: 0 (17.0/8.0)
|   |   whatf = watch: 1 (16.0/4.0)
|   |   whatf = cowash
|   |   |   purposef = opauto: 1 (3.0/1.0)
|   |   |   purposef = lochouse: 0 (4.0/2.0)
|   |   |   purposef = preshouse: 0 (3.0)
|   |   |   purposef = alert: 1 (4.0/1.0)
|   |   whatf = cam: 0 (17.0/5.0)
cstore = remserv: 0 (1508.0/630.0)
cstore = share: 0 (1508.0/330.0)

Number of Leaves  : 	36

Size of the tree : 	44

0.24	68	63.35
J48 pruned tree
------------------

cstore = locally
|   whof = hvac
|   |   caction = reco: 0 (49.0/18.0)
|   |   caction = insight: 1 (45.0/21.0)
|   |   caction = opti: 1 (43.0/16.0)
|   |   caction = nothing: 1 (50.0/24.0)
|   whof = refr
|   |   purposef = opauto: 1 (48.0/18.0)
|   |   purposef = lochouse: 0 (41.0/12.0)
|   |   purposef = preshouse: 1 (45.0/21.0)
|   |   purposef = alert: 0 (49.0/24.0)
|   whof = assis: 1 (194.0/71.0)
|   whof = light: 1 (188.0/64.0)
|   whof = wash: 0 (187.0/83.0)
|   whof = alarm
|   |   purposef = opauto: 1 (49.0/21.0)
|   |   purposef = lochouse: 0 (47.0/11.0)
|   |   purposef = preshouse: 1 (51.0/21.0)
|   |   purposef = alert: 1 (43.0/18.0)
|   whof = secu
|   |   whatf = coassis: 1 (14.0/4.0)
|   |   whatf = colight: 1 (18.0/2.0)
|   |   whatf = locsens: 1 (15.0/6.0)
|   |   whatf = coalarm: 1 (15.0/6.0)
|   |   whatf = cotv: 1 (17.0/5.0)
|   |   whatf = cosecu: 0 (18.0/7.0)
|   |   whatf = corefri
|   |   |   purposef = opauto: 1 (3.0/1.0)
|   |   |   purposef = lochouse: 1 (5.0/1.0)
|   |   |   purposef = preshouse: 0 (4.0/1.0)
|   |   |   purposef = alert: 0 (4.0/1.0)
|   |   whatf = micro
|   |   |   purposef = opauto: 1 (5.0)
|   |   |   purposef = lochouse: 0 (4.0/1.0)
|   |   |   purposef = preshouse: 0 (3.0/1.0)
|   |   |   purposef = alert: 0 (4.0)
|   |   whatf = cohvac: 0 (15.0/7.0)
|   |   whatf = watch
|   |   |   caction = reco: 0 (4.0/1.0)
|   |   |   caction = insight: 1 (4.0/1.0)
|   |   |   caction = opti: 0 (4.0/1.0)
|   |   |   caction = nothing: 1 (4.0)
|   |   whatf = cowash: 0 (16.0/5.0)
|   |   whatf = cam: 1 (13.0/5.0)
|   whof = tv
|   |   whatf = coassis: 0 (15.0/6.0)
|   |   whatf = colight: 0 (15.0/5.0)
|   |   whatf = locsens: 0 (15.0/4.0)
|   |   whatf = coalarm: 1 (15.0/4.0)
|   |   whatf = cotv: 0 (17.0/8.0)
|   |   whatf = cosecu
|   |   |   purposef = opauto: 0 (4.0/2.0)
|   |   |   purposef = lochouse: 0 (4.0/1.0)
|   |   |   purposef = preshouse: 0 (4.0/1.0)
|   |   |   purposef = alert: 1 (4.0)
|   |   whatf = corefri: 0 (17.0/6.0)
|   |   whatf = micro: 1 (16.0/7.0)
|   |   whatf = cohvac: 0 (17.0/8.0)
|   |   whatf = watch: 1 (16.0/4.0)
|   |   whatf = cowash
|   |   |   purposef = opauto: 1 (3.0/1.0)
|   |   |   purposef = lochouse: 0 (4.0/2.0)
|   |   |   purposef = preshouse: 0 (3.0)
|   |   |   purposef = alert: 1 (4.0/1.0)
|   |   whatf = cam: 0 (17.0/5.0)
cstore = remserv: 0 (1508.0/630.0)
cstore = share: 0 (1508.0/330.0)

Number of Leaves  : 	56

Size of the tree : 	68

0.25	68	62.71
J48 pruned tree
------------------

cstore = locally
|   whof = hvac
|   |   caction = reco: 0 (49.0/18.0)
|   |   caction = insight: 1 (45.0/21.0)
|   |   caction = opti: 1 (43.0/16.0)
|   |   caction = nothing: 1 (50.0/24.0)
|   whof = refr
|   |   purposef = opauto: 1 (48.0/18.0)
|   |   purposef = lochouse: 0 (41.0/12.0)
|   |   purposef = preshouse: 1 (45.0/21.0)
|   |   purposef = alert: 0 (49.0/24.0)
|   whof = assis: 1 (194.0/71.0)
|   whof = light: 1 (188.0/64.0)
|   whof = wash: 0 (187.0/83.0)
|   whof = alarm
|   |   purposef = opauto: 1 (49.0/21.0)
|   |   purposef = lochouse: 0 (47.0/11.0)
|   |   purposef = preshouse: 1 (51.0/21.0)
|   |   purposef = alert: 1 (43.0/18.0)
|   whof = secu
|   |   whatf = coassis: 1 (14.0/4.0)
|   |   whatf = colight: 1 (18.0/2.0)
|   |   whatf = locsens: 1 (15.0/6.0)
|   |   whatf = coalarm: 1 (15.0/6.0)
|   |   whatf = cotv: 1 (17.0/5.0)
|   |   whatf = cosecu: 0 (18.0/7.0)
|   |   whatf = corefri
|   |   |   purposef = opauto: 1 (3.0/1.0)
|   |   |   purposef = lochouse: 1 (5.0/1.0)
|   |   |   purposef = preshouse: 0 (4.0/1.0)
|   |   |   purposef = alert: 0 (4.0/1.0)
|   |   whatf = micro
|   |   |   purposef = opauto: 1 (5.0)
|   |   |   purposef = lochouse: 0 (4.0/1.0)
|   |   |   purposef = preshouse: 0 (3.0/1.0)
|   |   |   purposef = alert: 0 (4.0)
|   |   whatf = cohvac: 0 (15.0/7.0)
|   |   whatf = watch
|   |   |   caction = reco: 0 (4.0/1.0)
|   |   |   caction = insight: 1 (4.0/1.0)
|   |   |   caction = opti: 0 (4.0/1.0)
|   |   |   caction = nothing: 1 (4.0)
|   |   whatf = cowash: 0 (16.0/5.0)
|   |   whatf = cam: 1 (13.0/5.0)
|   whof = tv
|   |   whatf = coassis: 0 (15.0/6.0)
|   |   whatf = colight: 0 (15.0/5.0)
|   |   whatf = locsens: 0 (15.0/4.0)
|   |   whatf = coalarm: 1 (15.0/4.0)
|   |   whatf = cotv: 0 (17.0/8.0)
|   |   whatf = cosecu
|   |   |   purposef = opauto: 0 (4.0/2.0)
|   |   |   purposef = lochouse: 0 (4.0/1.0)
|   |   |   purposef = preshouse: 0 (4.0/1.0)
|   |   |   purposef = alert: 1 (4.0)
|   |   whatf = corefri: 0 (17.0/6.0)
|   |   whatf = micro: 1 (16.0/7.0)
|   |   whatf = cohvac: 0 (17.0/8.0)
|   |   whatf = watch: 1 (16.0/4.0)
|   |   whatf = cowash
|   |   |   purposef = opauto: 1 (3.0/1.0)
|   |   |   purposef = lochouse: 0 (4.0/2.0)
|   |   |   purposef = preshouse: 0 (3.0)
|   |   |   purposef = alert: 1 (4.0/1.0)
|   |   whatf = cam: 0 (17.0/5.0)
cstore = remserv: 0 (1508.0/630.0)
cstore = share: 0 (1508.0/330.0)

Number of Leaves  : 	56

Size of the tree : 	68

