0.01	1	82.01
J48 pruned tree
------------------
: 0 (2268.0/408.0)

Number of Leaves  : 	1

Size of the tree : 	1

0.02	1	82.01
J48 pruned tree
------------------
: 0 (2268.0/408.0)

Number of Leaves  : 	1

Size of the tree : 	1

0.03	1	82.01
J48 pruned tree
------------------
: 0 (2268.0/408.0)

Number of Leaves  : 	1

Size of the tree : 	1

0.04	1	82.01
J48 pruned tree
------------------
: 0 (2268.0/408.0)

Number of Leaves  : 	1

Size of the tree : 	1

0.05	1	82.01
J48 pruned tree
------------------
: 0 (2268.0/408.0)

Number of Leaves  : 	1

Size of the tree : 	1

0.06	1	82.01
J48 pruned tree
------------------
: 0 (2268.0/408.0)

Number of Leaves  : 	1

Size of the tree : 	1

0.07	1	82.01
J48 pruned tree
------------------
: 0 (2268.0/408.0)

Number of Leaves  : 	1

Size of the tree : 	1

0.08	1	82.01
J48 pruned tree
------------------
: 0 (2268.0/408.0)

Number of Leaves  : 	1

Size of the tree : 	1

0.09	1	82.01
J48 pruned tree
------------------
: 0 (2268.0/408.0)

Number of Leaves  : 	1

Size of the tree : 	1

0.10	1	82.01
J48 pruned tree
------------------
: 0 (2268.0/408.0)

Number of Leaves  : 	1

Size of the tree : 	1

0.11	1	82.01
J48 pruned tree
------------------
: 0 (2268.0/408.0)

Number of Leaves  : 	1

Size of the tree : 	1

0.12	1	82.01
J48 pruned tree
------------------
: 0 (2268.0/408.0)

Number of Leaves  : 	1

Size of the tree : 	1

0.13	1	82.01
J48 pruned tree
------------------
: 0 (2268.0/408.0)

Number of Leaves  : 	1

Size of the tree : 	1

0.14	1	82.01
J48 pruned tree
------------------
: 0 (2268.0/408.0)

Number of Leaves  : 	1

Size of the tree : 	1

0.15	1	82.01
J48 pruned tree
------------------
: 0 (2268.0/408.0)

Number of Leaves  : 	1

Size of the tree : 	1

0.16	1	82.01
J48 pruned tree
------------------
: 0 (2268.0/408.0)

Number of Leaves  : 	1

Size of the tree : 	1

0.17	1	82.01
J48 pruned tree
------------------
: 0 (2268.0/408.0)

Number of Leaves  : 	1

Size of the tree : 	1

0.18	1	82.01
J48 pruned tree
------------------
: 0 (2268.0/408.0)

Number of Leaves  : 	1

Size of the tree : 	1

0.19	1	82.01
J48 pruned tree
------------------
: 0 (2268.0/408.0)

Number of Leaves  : 	1

Size of the tree : 	1

0.20	1	82.01
J48 pruned tree
------------------
: 0 (2268.0/408.0)

Number of Leaves  : 	1

Size of the tree : 	1

0.21	1	82.01
J48 pruned tree
------------------
: 0 (2268.0/408.0)

Number of Leaves  : 	1

Size of the tree : 	1

0.22	1	82.01
J48 pruned tree
------------------
: 0 (2268.0/408.0)

Number of Leaves  : 	1

Size of the tree : 	1

0.23	1	82.01
J48 pruned tree
------------------
: 0 (2268.0/408.0)

Number of Leaves  : 	1

Size of the tree : 	1

0.24	1	82.01
J48 pruned tree
------------------
: 0 (2268.0/408.0)

Number of Leaves  : 	1

Size of the tree : 	1

0.25	1	82.01
J48 pruned tree
------------------
: 0 (2268.0/408.0)

Number of Leaves  : 	1

Size of the tree : 	1

